digraph Tree {
node [shape=box] ;
0 [label="X[0] <= 325.0\ngini = 0.494\nsamples = 9\nvalue = [4, 5]"] ;
1 [label="gini = 0.0\nsamples = 4\nvalue = [4, 0]"] ;
0 -> 1 [labeldistance=2.5, labelangle=45, headlabel="True"] ;
2 [label="gini = 0.0\nsamples = 5\nvalue = [0, 5]"] ;
0 -> 2 [labeldistance=2.5, labelangle=-45, headlabel="False"] ;
}








install keras version of 2.2.4
opencv version 4.1.1
tensorflow 2.0.0

dataset mnist dataset